{
  "keymap": {
    "0": "4,10",
    "1": "4,1",
    "2": "4,2",
    "3": "4,3",
    "4": "4,4",
    "5": "4,5",
    "6": "4,6",
    "7": "4,7",
    "8": "4,8",
    "9": "4,9",
    "a": "2,2",
    "b": "1,7",
    "backspace": "4,14",
    "bslash": "3,14",
    "c": "1,5",
    "caps": "2,0",
    "comma": "1,10",
    "d": "2,4",
    "del": "5,15",
    "dot": "1,11",
    "down": "0,18",
    "e": "3,4",
    "end": "5,19",
    "enter": "2,14",
    "equal": "4,12",
    "esc": "5,0",
    "f": "2,5",
    "f1": "5,1",
    "f10": "5,10",
    "f11": "5,11",
    "f12": "5,12",
    "f2": "5,2",
    "f3": "5,3",
    "f4": "5,4",
    "f5": "5,5",
    "f6": "5,6",
    "f7": "5,7",
    "f8": "5,8",
    "f9": "5,9",
    "fn": "0,2",
    "g": "2,6",
    "grave": "4,0",
    "h": "2,7",
    "home": "5,16",
    "i": "3,9",
    "j": "2,8",
    "k": "2,9",
    "l": "2,10",
    "lalt": "0,4",
    "lbracket": "3,12",
    "lctrl": "0,0",
    "left": "0,13",
    "lshift": "1,0",
    "lwin": "0,3",
    "m": "1,9",
    "menu": "0,12",
    "minus": "4,11",
    "n": "1,8",
    "num0": "0,16",
    "num1": "1,15",
    "num2": "1,16",
    "num3": "1,17",
    "num4": "2,15",
    "num5": "2,16",
    "num6": "2,17",
    "num7": "3,15",
    "num8": "3,16",
    "num9": "3,17",
    "numdot": "0,17",
    "numenter": "1,18",
    "numlock": "4,15",
    "numminus": "4,18",
    "numplus": "3,18",
    "numslash": "4,16",
    "numstar": "4,17",
    "o": "3,10",
    "p": "3,11",
    "pgdn": "5,18",
    "pgup": "5,17",
    "prtsc": "5,14",
    "q": "3,2",
    "quote": "2,12",
    "r": "3,5",
    "ralt": "0,10",
    "rbracket": "3,13",
    "right": "0,15",
    "rshift": "1,14",
    "s": "2,3",
    "sc": "5,13",
    "semicolon": "2,11",
    "slash": "1,12",
    "space": "0,7",
    "t": "3,6",
    "tab": "3,0",
    "u": "3,8",
    "up": "0,14",
    "v": "1,6",
    "w": "3,3",
    "x": "1,4",
    "y": "3,7",
    "z": "1,3"
  },
  "layout_tweaks": {
    "dx": 0.0,
    "dy": 0.0,
    "inset": 0.06,
    "sx": 1.0,
    "sy": 1.0
  },
  "per_key_tweaks": {
    "0": {
      "dx": 55.220869565217264,
      "dy": -27.192982456140363,
      "inset": 0.06,
      "sx": 1.1533913043478266,
      "sy": 1.0877192982456143
    },
    "1": {
      "dx": -30.18434782608695,
      "dy": -27.192982456140356,
      "inset": 0.06,
      "sx": 1.1314782608695648,
      "sy": 1.1535087719298247
    },
    "2": {
      "dx": -22.789565217391328,
      "dy": -27.192982456140356,
      "inset": 0.06,
      "sx": 1.1533913043478266,
      "sy": 1.0877192982456143
    },
    "3": {
      "dx": -14.27130434782606,
      "dy": -27.192982456140356,
      "inset": 0.06,
      "sx": 1.1533913043478266,
      "sy": 1.0877192982456143
    },
    "4": {
      "dx": -3.9443478260869824,
      "dy": -27.192982456140356,
      "inset": 0.06,
      "sx": 1.1095652173913038,
      "sy": 1.0877192982456136
    },
    "5": {
      "dx": 7.012173913043398,
      "dy": -27.192982456140342,
      "inset": 0.06,
      "sx": 1.1753043478260863,
      "sy": 1.1315789473684212
    },
    "6": {
      "dx": 16.65391304347827,
      "dy": -27.192982456140356,
      "inset": 0.06,
      "sx": 1.1533913043478266,
      "sy": 1.0877192982456143
    },
    "7": {
      "dx": 26.295652173913027,
      "dy": -27.192982456140356,
      "inset": 0.06,
      "sx": 1.1533913043478266,
      "sy": 1.0877192982456143
    },
    "8": {
      "dx": 35.499130434782614,
      "dy": -27.192982456140356,
      "inset": 0.06,
      "sx": 1.1533913043478266,
      "sy": 1.0877192982456143
    },
    "9": {
      "dx": 46.017391304347825,
      "dy": -27.192982456140356,
      "inset": 0.06,
      "sx": 1.1533913043478266,
      "sy": 1.1535087719298247
    },
    "a": {
      "dx": -20.598260869565223,
      "dy": -17.54385964912285,
      "inset": 0.06,
      "sx": 1.1533913043478266,
      "sy": 1.0877192982456143
    },
    "b": {
      "dx": 26.141739130434757,
      "dy": -11.842105263157919,
      "inset": 0.06,
      "sx": 1.1533913043478266,
      "sy": 1.0877192982456143
    },
    "backspace": {
      "dx": 89.4052173913044,
      "dy": -27.192982456140356,
      "inset": 0.06,
      "sx": 1.183458038422649,
      "sy": 1.1096491228070176
    },
    "bslash": {
      "dx": 92.47304347826093,
      "dy": -23.245614035087726,
      "inset": 0.06,
      "sx": 1.0929644268774705,
      "sy": 1.1096491228070178
    },
    "c": {
      "dx": 6.573913043478228,
      "dy": -11.842105263157919,
      "inset": 0.06,
      "sx": 1.1533913043478257,
      "sy": 1.1754385964912266
    },
    "caps": {
      "dx": -31.11652173913044,
      "dy": -17.543859649122822,
      "inset": 0.06,
      "sx": 1.1126956521739129,
      "sy": 1.1096491228070178
    },
    "comma": {
      "dx": 55.22086956521741,
      "dy": -11.842105263157919,
      "inset": 0.06,
      "sx": 1.1533913043478266,
      "sy": 1.0877192982456143
    },
    "d": {
      "dx": 0.0,
      "dy": -17.54385964912285,
      "inset": 0.06,
      "sx": 1.1533913043478266,
      "sy": 1.0877192982456143
    },
    "del": {
      "dx": -44.632173913043495,
      "dy": -32.07017543859649,
      "inset": 0.06,
      "sx": 1.2281086956521747,
      "sy": 0.6362938596491227
    },
    "dot": {
      "dx": 67.69913043478257,
      "dy": -11.842105263157805,
      "inset": 0.06,
      "sx": 1.2410434782608717,
      "sy": 1.1973684210526314
    },
    "down": {
      "dx": 42.511304347826126,
      "dy": 46.49122807017545,
      "inset": 0.06,
      "sx": 1.3569309462915606,
      "sy": 1.2796697626418994
    },
    "e": {
      "dx": -6.1356521739130585,
      "dy": -23.245614035087726,
      "inset": 0.06,
      "sx": 1.1533913043478266,
      "sy": 1.0877192982456143
    },
    "end": {
      "dx": 40.58260869565215,
      "dy": -32.070175438596486,
      "inset": 0.06,
      "sx": 1.044,
      "sy": 0.65
    },
    "enter": {
      "dx": 94.22608695652161,
      "dy": -17.543859649122822,
      "inset": 0.06,
      "sx": 1.2144680851063827,
      "sy": 1.043859649122807
    },
    "equal": {
      "dx": 74.55739130434768,
      "dy": -27.192982456140356,
      "inset": 0.06,
      "sx": 1.1533913043478266,
      "sy": 1.0877192982456143
    },
    "esc": {
      "dx": -31.55478260869565,
      "dy": -3.0701754385964932,
      "inset": 0.06,
      "sx": 1.1947826086956521,
      "sy": 0.7420020639834879
    },
    "f": {
      "dx": 9.06782608695653,
      "dy": -17.543859649122794,
      "inset": 0.06,
      "sx": 1.1533913043478266,
      "sy": 1.1315789473684212
    },
    "f1": {
      "dx": -38.18434782608695,
      "dy": -3.0701754385964897,
      "inset": 0.06,
      "sx": 1.2062404092071615,
      "sy": 0.6904024767801857
    },
    "f10": {
      "dx": 47.08521739130443,
      "dy": -3.0701754385964968,
      "inset": 0.06,
      "sx": 1.2062404092071621,
      "sy": 0.7162022703818368
    },
    "f11": {
      "dx": 53.699130434782546,
      "dy": -3.0701754385964932,
      "inset": 0.06,
      "sx": 1.2062404092071588,
      "sy": 0.6388028895768831
    },
    "f12": {
      "dx": 67.4365217391304,
      "dy": -3.0701754385964932,
      "inset": 0.06,
      "sx": 1.2320204603580578,
      "sy": 0.6646026831785342
    },
    "f2": {
      "dx": -24.542608695652177,
      "dy": -3.0701754385964897,
      "inset": 0.06,
      "sx": 1.3093606138107414,
      "sy": 0.6904024767801855
    },
    "f3": {
      "dx": -10.27130434782606,
      "dy": -3.070175438596486,
      "inset": 0.06,
      "sx": 1.232020460358056,
      "sy": 0.6646026831785347
    },
    "f4": {
      "dx": 0.0,
      "dy": -3.070175438596486,
      "inset": 0.06,
      "sx": 1.257800511508952,
      "sy": 0.6646026831785347
    },
    "f5": {
      "dx": -2.9321739130434707,
      "dy": -3.0701754385964932,
      "inset": 0.06,
      "sx": 1.1804603580562665,
      "sy": 0.6388028895768834
    },
    "f6": {
      "dx": 10.805217391304305,
      "dy": -3.0701754385964932,
      "inset": 0.06,
      "sx": 1.1804603580562665,
      "sy": 0.6646026831785344
    },
    "f7": {
      "dx": 21.913043478260857,
      "dy": -3.0701754385964932,
      "inset": 0.06,
      "sx": 1.154680306905369,
      "sy": 0.6904024767801857
    },
    "f8": {
      "dx": 31.088695652173975,
      "dy": -3.0701754385964932,
      "inset": 0.06,
      "sx": 1.232020460358056,
      "sy": 0.7420020639834888
    },
    "f9": {
      "dx": 32.69043478260869,
      "dy": -3.0701754385964932,
      "inset": 0.06,
      "sx": 1.2062404092071604,
      "sy": 0.6904024767801857
    },
    "fn": {
      "dx": -28.48695652173913,
      "dy": -4.605263157894683,
      "inset": 0.06,
      "sx": 1.153391304347826,
      "sy": 1.2412280701754383
    },
    "g": {
      "dx": 16.805217391304325,
      "dy": -17.543859649122822,
      "inset": 0.06,
      "sx": 1.1533913043478266,
      "sy": 1.0877192982456143
    },
    "grave": {
      "dx": -33.55478260869565,
      "dy": -27.192982456140356,
      "inset": 0.06,
      "sx": 0.9123478260869564,
      "sy": 1.1754385964912282
    },
    "h": {
      "dx": 28.925217391304386,
      "dy": -17.543859649122822,
      "inset": 0.06,
      "sx": 1.1533913043478266,
      "sy": 1.0877192982456143
    },
    "home": {
      "dx": 26.789565217391292,
      "dy": -32.070175438596486,
      "inset": 0.06,
      "sx": 1.032,
      "sy": 0.65
    },
    "i": {
      "dx": 42.69043478260869,
      "dy": -23.245614035087726,
      "inset": 0.06,
      "sx": 1.1533913043478266,
      "sy": 1.0877192982456143
    },
    "j": {
      "dx": 37.252173913043464,
      "dy": -17.543859649122794,
      "inset": 0.06,
      "sx": 1.1095652173913038,
      "sy": 1.0877192982456136
    },
    "k": {
      "dx": 46.89391304347828,
      "dy": -17.543859649122794,
      "inset": 0.06,
      "sx": 1.1533913043478266,
      "sy": 1.0877192982456143
    },
    "l": {
      "dx": 56.973913043478206,
      "dy": -17.543859649122794,
      "inset": 0.06,
      "sx": 1.1533913043478266,
      "sy": 1.0877192982456143
    },
    "lalt": {
      "dx": -14.462608695652175,
      "dy": -4.82456140350871,
      "inset": 0.06,
      "sx": 0.9123478260869564,
      "sy": 1.1973684210526314
    },
    "lbracket": {
      "dx": 72.75130434782614,
      "dy": -23.245614035087755,
      "inset": 0.06,
      "sx": 1.1533913043478266,
      "sy": 1.0877192982456143
    },
    "lctrl": {
      "dx": -34.17217391304348,
      "dy": -4.605263157894658,
      "inset": 0.06,
      "sx": 1.0,
      "sy": 1.3070175438596494
    },
    "left": {
      "dx": 27.557391304347675,
      "dy": 46.49122807017545,
      "inset": 0.06,
      "sx": 1.5156010230179036,
      "sy": 1.464396284829723
    },
    "lshift": {
      "dx": -27.17217391304348,
      "dy": -11.842105263157919,
      "inset": 0.06,
      "sx": 1.1947826086956521,
      "sy": 1.1535087719298247
    },
    "lwin": {
      "dx": -19.434782608695627,
      "dy": -4.385964912280631,
      "inset": 0.06,
      "sx": 1.131478260869565,
      "sy": 1.2192982456140355
    },
    "m": {
      "dx": 45.14086956521737,
      "dy": -11.842105263157919,
      "inset": 0.06,
      "sx": 1.1533913043478266,
      "sy": 1.0877192982456143
    },
    "menu": {
      "dx": 25.073043478260953,
      "dy": -4.605263157894683,
      "inset": 0.06,
      "sx": 2.1753043478260876,
      "sy": 1.2543859649122808
    },
    "minus": {
      "dx": 63.98608695652172,
      "dy": -27.192982456140356,
      "inset": 0.06,
      "sx": 1.1533913043478266,
      "sy": 1.0877192982456143
    },
    "n": {
      "dx": 35.937391304347784,
      "dy": -11.842105263157919,
      "inset": 0.06,
      "sx": 1.1533913043478266,
      "sy": 1.0877192982456143
    },
    "num0": {
      "dx": 24.438260869565283,
      "dy": -4.605263157894683,
      "inset": 0.06,
      "sx": 1.0109565217391308,
      "sy": 1.2850877192982453
    },
    "num1": {
      "dx": 22.789565217391328,
      "dy": -11.842105263157919,
      "inset": 0.16,
      "sx": 1.0708260869565236,
      "sy": 1.2870175438596498
    },
    "num2": {
      "dx": 21.03652173913065,
      "dy": -11.842105263157919,
      "inset": 0.16,
      "sx": 1.134565217391304,
      "sy": 1.2870175438596498
    },
    "num3": {
      "dx": 19.7217391304348,
      "dy": -11.842105263157919,
      "inset": 0.16,
      "sx": 1.1091521739130428,
      "sy": 1.308947368421053
    },
    "num4": {
      "dx": 22.789565217391328,
      "dy": -17.543859649122822,
      "inset": 0.16,
      "sx": 1.1136521739130416,
      "sy": 1.2789473684210528
    },
    "num5": {
      "dx": 21.03652173913065,
      "dy": -17.543859649122822,
      "inset": 0.16,
      "sx": 1.1126521739130453,
      "sy": 1.2570175438596494
    },
    "num6": {
      "dx": 19.7217391304348,
      "dy": -17.543859649122822,
      "inset": 0.16,
      "sx": 1.131065217391304,
      "sy": 1.344736842105263
    },
    "num7": {
      "dx": 22.789565217391345,
      "dy": -23.245614035087737,
      "inset": 0.16,
      "sx": 1.135565217391303,
      "sy": 1.3266666666666667
    },
    "num8": {
      "dx": 21.03652173913065,
      "dy": -23.245614035087726,
      "inset": 0.16,
      "sx": 1.090739130434784,
      "sy": 1.3924561403508775
    },
    "num9": {
      "dx": 19.721739130434834,
      "dy": -23.245614035087705,
      "inset": 0.16,
      "sx": 1.1096521739130423,
      "sy": 1.3266666666666667
    },
    "numdot": {
      "dx": 25.72173913043476,
      "dy": -4.82456140350876,
      "inset": 0.16,
      "sx": 1.1766413043478265,
      "sy": 1.4732456140350871
    },
    "numenter": {
      "dx": 18.582608695652198,
      "dy": -3.5087719298245474,
      "inset": 0.2,
      "sx": 1.249086956521738,
      "sy": 1.3880966952264382
    },
    "numlock": {
      "dx": 22.789565217391406,
      "dy": -27.192982456140356,
      "inset": 0.16,
      "sx": 1.2033043478260879,
      "sy": 1.3543859649122811
    },
    "numminus": {
      "dx": 18.58260869565216,
      "dy": -27.19298245614035,
      "inset": 0.2,
      "sx": 1.1766413043478265,
      "sy": 1.4732456140350871
    },
    "numplus": {
      "dx": 18.582608695652198,
      "dy": -15.350877192982466,
      "inset": 0.2,
      "sx": 1.249086956521738,
      "sy": 1.3880966952264382
    },
    "numslash": {
      "dx": 21.03652173913065,
      "dy": -27.192982456140356,
      "inset": 0.2,
      "sx": 1.296413043478259,
      "sy": 1.5407894736842105
    },
    "numstar": {
      "dx": 19.721739130434834,
      "dy": -27.070175438596465,
      "inset": 0.2,
      "sx": 1.296413043478259,
      "sy": 1.5407894736842105
    },
    "o": {
      "dx": 51.08521739130447,
      "dy": -23.245614035087755,
      "inset": 0.06,
      "sx": 1.1533913043478266,
      "sy": 1.0877192982456143
    },
    "p": {
      "dx": 63.109565217391264,
      "dy": -23.245614035087726,
      "inset": 0.06,
      "sx": 1.1533913043478266,
      "sy": 1.0877192982456143
    },
    "pgdn": {
      "dx": 35.72173913043476,
      "dy": -32.070175438596486,
      "inset": 0.06,
      "sx": 1.04,
      "sy": 0.65
    },
    "pgup": {
      "dx": 31.03652173913067,
      "dy": -32.070175438596486,
      "inset": 0.06,
      "sx": 1.035,
      "sy": 0.65
    },
    "prtsc": {
      "dx": -54.68260869565213,
      "dy": -32.07017543859649,
      "inset": 0.06,
      "sx": 1.2281086956521747,
      "sy": 0.6362938596491227
    },
    "q": {
      "dx": -23.666086956521752,
      "dy": -23.245614035087726,
      "inset": 0.06,
      "sx": 1.1533913043478266,
      "sy": 1.0877192982456143
    },
    "quote": {
      "dx": 76.25739130434782,
      "dy": -17.543859649122822,
      "inset": 0.06,
      "sx": 1.1753043478260878,
      "sy": 1.1315789473684206
    },
    "r": {
      "dx": 5.259130434782605,
      "dy": -23.245614035087726,
      "inset": 0.06,
      "sx": 1.1533913043478266,
      "sy": 1.0877192982456143
    },
    "ralt": {
      "dx": 0.43826086956516974,
      "dy": -4.824561403508792,
      "inset": 0.06,
      "sx": 0.9474086956521751,
      "sy": 1.2412280701754383
    },
    "rbracket": {
      "dx": 81.07826086956516,
      "dy": -23.245614035087726,
      "inset": 0.06,
      "sx": 1.1533913043478266,
      "sy": 1.0877192982456143
    },
    "right": {
      "dx": 60.367826086956484,
      "dy": 46.49122807017545,
      "inset": 0.1,
      "sx": 1.4382608695652166,
      "sy": 1.4385964912280709
    },
    "rshift": {
      "dx": 96.3173913043479,
      "dy": -11.842105263157862,
      "inset": 0.06,
      "sx": 1.26141876430206,
      "sy": 1.0657894736842117
    },
    "s": {
      "dx": -10.956521739130437,
      "dy": -17.54385964912285,
      "inset": 0.06,
      "sx": 1.1533913043478266,
      "sy": 1.0877192982456143
    },
    "sc": {
      "dx": -66.17739130434772,
      "dy": -32.07017543859649,
      "inset": 0.06,
      "sx": 1.2163043478260889,
      "sy": 0.6500000000000004
    },
    "semicolon": {
      "dx": 64.33217391304358,
      "dy": -17.543859649122822,
      "inset": 0.06,
      "sx": 1.1095652173913038,
      "sy": 1.0877192982456136
    },
    "slash": {
      "dx": 75.4365217391304,
      "dy": -11.842105263157919,
      "inset": 0.06,
      "sx": 1.1533913043478266,
      "sy": 1.131578947368422
    },
    "space": {
      "dx": -6.858260869565281,
      "dy": -4.605263157894683,
      "inset": 0.06,
      "sx": 1.0441658240647118,
      "sy": 1.2412280701754383
    },
    "t": {
      "dx": 14.024347826086967,
      "dy": -23.245614035087726,
      "inset": 0.06,
      "sx": 1.1533913043478266,
      "sy": 1.0877192982456143
    },
    "tab": {
      "dx": -32.86956521739131,
      "dy": -23.24561403508772,
      "inset": 0.06,
      "sx": 1.1022608695652172,
      "sy": 1.1535087719298247
    },
    "u": {
      "dx": 35.08869565217395,
      "dy": -23.245614035087726,
      "inset": 0.06,
      "sx": 1.1533913043478266,
      "sy": 1.0877192982456143
    },
    "up": {
      "dx": 42.949565217391296,
      "dy": 28.394736842105317,
      "inset": 0.06,
      "sx": 1.3093606138107414,
      "sy": 1.3611971104231169
    },
    "v": {
      "dx": 16.65391304347827,
      "dy": -11.842105263157919,
      "inset": 0.06,
      "sx": 1.1533913043478266,
      "sy": 1.0877192982456143
    },
    "w": {
      "dx": -13.58608695652174,
      "dy": -23.245614035087726,
      "inset": 0.06,
      "sx": 1.1095652173913044,
      "sy": 1.1315789473684212
    },
    "x": {
      "dx": -3.0678260869565293,
      "dy": -11.842105263157919,
      "inset": 0.06,
      "sx": 1.1095652173913038,
      "sy": 1.0877192982456136
    },
    "y": {
      "dx": 24.10434782608695,
      "dy": -23.245614035087726,
      "inset": 0.06,
      "sx": 1.1095652173913038,
      "sy": 1.0877192982456136
    },
    "z": {
      "dx": -13.434782608695627,
      "dy": -11.842105263157862,
      "inset": 0.06,
      "sx": 1.1095652173913038,
      "sy": 1.0877192982456136
    }
  }
}